digraph Tree {
node [shape=box, fontname="helvetica"] ;
edge [fontname="helvetica"] ;
0 [label="x[8] <= 0.049\nentropy = 0.991\nsamples = 3365\nvalue = [1869, 1496]"] ;
1 [label="x[26] <= 0.5\nentropy = 0.554\nsamples = 1895\nvalue = [1651, 244]"] ;
0 -> 1 [labeldistance=2.5, labelangle=45, headlabel="True"] ;
2 [label="x[25] <= 0.5\nentropy = 0.665\nsamples = 1410\nvalue = [1166, 244]"] ;
1 -> 2 ;
3 [label="x[1] <= 5.75\nentropy = 0.756\nsamples = 1122\nvalue = [878, 244]"] ;
2 -> 3 ;
4 [label="x[27] <= 0.5\nentropy = 0.554\nsamples = 559\nvalue = [487, 72]"] ;
3 -> 4 ;
5 [label="entropy = 0.227\nsamples = 300\nvalue = [289, 11]"] ;
4 -> 5 ;
6 [label="entropy = 0.788\nsamples = 259\nvalue = [198, 61]"] ;
4 -> 6 ;
7 [label="x[4] <= 2.5\nentropy = 0.888\nsamples = 563\nvalue = [391, 172]"] ;
3 -> 7 ;
8 [label="entropy = 0.799\nsamples = 33\nvalue = [8, 25]"] ;
7 -> 8 ;
9 [label="entropy = 0.852\nsamples = 530\nvalue = [383, 147]"] ;
7 -> 9 ;
10 [label="entropy = 0.0\nsamples = 288\nvalue = [288, 0]"] ;
2 -> 10 ;
11 [label="entropy = 0.0\nsamples = 485\nvalue = [485, 0]"] ;
1 -> 11 ;
12 [label="x[8] <= 16.659\nentropy = 0.606\nsamples = 1470\nvalue = [218, 1252]"] ;
0 -> 12 [labeldistance=2.5, labelangle=-45, headlabel="False"] ;
13 [label="x[0] <= 1.5\nentropy = 0.799\nsamples = 611\nvalue = [148, 463]"] ;
12 -> 13 ;
14 [label="x[5] <= 941.533\nentropy = 0.544\nsamples = 168\nvalue = [21, 147]"] ;
13 -> 14 ;
15 [label="x[1] <= 104.98\nentropy = 0.189\nsamples = 69\nvalue = [2, 67]"] ;
14 -> 15 ;
16 [label="entropy = 0.111\nsamples = 68\nvalue = [1, 67]"] ;
15 -> 16 ;
17 [label="entropy = 0.0\nsamples = 1\nvalue = [1, 0]"] ;
15 -> 17 ;
18 [label="x[1] <= 58.317\nentropy = 0.705\nsamples = 99\nvalue = [19, 80]"] ;
14 -> 18 ;
19 [label="entropy = 0.762\nsamples = 86\nvalue = [19, 67]"] ;
18 -> 19 ;
20 [label="entropy = 0.0\nsamples = 13\nvalue = [0, 13]"] ;
18 -> 20 ;
21 [label="x[27] <= 0.5\nentropy = 0.864\nsamples = 443\nvalue = [127, 316]"] ;
13 -> 21 ;
22 [label="x[4] <= 37.5\nentropy = 0.915\nsamples = 303\nvalue = [100, 203]"] ;
21 -> 22 ;
23 [label="entropy = 0.689\nsamples = 125\nvalue = [23, 102]"] ;
22 -> 23 ;
24 [label="entropy = 0.987\nsamples = 178\nvalue = [77, 101]"] ;
22 -> 24 ;
25 [label="x[4] <= 29.5\nentropy = 0.707\nsamples = 140\nvalue = [27, 113]"] ;
21 -> 25 ;
26 [label="entropy = 0.998\nsamples = 21\nvalue = [10, 11]"] ;
25 -> 26 ;
27 [label="entropy = 0.592\nsamples = 119\nvalue = [17, 102]"] ;
25 -> 27 ;
28 [label="x[6] <= 0.001\nentropy = 0.407\nsamples = 859\nvalue = [70, 789]"] ;
12 -> 28 ;
29 [label="x[4] <= 67.5\nentropy = 0.271\nsamples = 603\nvalue = [28, 575]"] ;
28 -> 29 ;
30 [label="x[8] <= 31.398\nentropy = 0.227\nsamples = 572\nvalue = [21, 551]"] ;
29 -> 30 ;
31 [label="entropy = 0.423\nsamples = 186\nvalue = [16, 170]"] ;
30 -> 31 ;
32 [label="entropy = 0.1\nsamples = 386\nvalue = [5, 381]"] ;
30 -> 32 ;
33 [label="x[4] <= 105.0\nentropy = 0.771\nsamples = 31\nvalue = [7, 24]"] ;
29 -> 33 ;
34 [label="entropy = 0.954\nsamples = 16\nvalue = [6, 10]"] ;
33 -> 34 ;
35 [label="entropy = 0.353\nsamples = 15\nvalue = [1, 14]"] ;
33 -> 35 ;
36 [label="x[23] <= 0.5\nentropy = 0.644\nsamples = 256\nvalue = [42, 214]"] ;
28 -> 36 ;
37 [label="x[5] <= 525.044\nentropy = 0.561\nsamples = 236\nvalue = [31, 205]"] ;
36 -> 37 ;
38 [label="entropy = 0.0\nsamples = 39\nvalue = [0, 39]"] ;
37 -> 38 ;
39 [label="entropy = 0.628\nsamples = 197\nvalue = [31, 166]"] ;
37 -> 39 ;
40 [label="x[7] <= 0.023\nentropy = 0.993\nsamples = 20\nvalue = [11, 9]"] ;
36 -> 40 ;
41 [label="entropy = 0.918\nsamples = 12\nvalue = [4, 8]"] ;
40 -> 41 ;
42 [label="entropy = 0.544\nsamples = 8\nvalue = [7, 1]"] ;
40 -> 42 ;
}