digraph Tree {
node [shape=box, fontname="helvetica"] ;
edge [fontname="helvetica"] ;
0 [label="x[8] <= 0.066\nentropy = 0.612\nsamples = 10985\nvalue = [9326, 1659]"] ;
1 [label="x[72] <= 0.5\nentropy = 0.214\nsamples = 8536\nvalue = [8246, 290]"] ;
0 -> 1 [labeldistance=2.5, labelangle=45, headlabel="True"] ;
2 [label="x[71] <= 0.5\nentropy = 0.12\nsamples = 6904\nvalue = [6792, 112]"] ;
1 -> 2 ;
3 [label="x[70] <= 0.5\nentropy = 0.174\nsamples = 4318\nvalue = [4206, 112]"] ;
2 -> 3 ;
4 [label="x[1] <= 1.0\nentropy = 0.245\nsamples = 2752\nvalue = [2640, 112]"] ;
3 -> 4 ;
5 [label="entropy = 0.081\nsamples = 1304\nvalue = [1291, 13]"] ;
4 -> 5 ;
6 [label="entropy = 0.36\nsamples = 1448\nvalue = [1349, 99]"] ;
4 -> 6 ;
7 [label="entropy = 0.0\nsamples = 1566\nvalue = [1566, 0]"] ;
3 -> 7 ;
8 [label="entropy = 0.0\nsamples = 2586\nvalue = [2586, 0]"] ;
2 -> 8 ;
9 [label="x[4] <= 52.5\nentropy = 0.497\nsamples = 1632\nvalue = [1454, 178]"] ;
1 -> 9 ;
10 [label="x[42] <= 0.5\nentropy = 0.407\nsamples = 1313\nvalue = [1206, 107]"] ;
9 -> 10 ;
11 [label="x[7] <= 0.076\nentropy = 0.444\nsamples = 1094\nvalue = [993, 101]"] ;
10 -> 11 ;
12 [label="entropy = 0.483\nsamples = 919\nvalue = [823, 96]"] ;
11 -> 12 ;
13 [label="entropy = 0.187\nsamples = 175\nvalue = [170, 5]"] ;
11 -> 13 ;
14 [label="x[4] <= 0.5\nentropy = 0.181\nsamples = 219\nvalue = [213, 6]"] ;
10 -> 14 ;
15 [label="entropy = 1.0\nsamples = 2\nvalue = [1, 1]"] ;
14 -> 15 ;
16 [label="entropy = 0.158\nsamples = 217\nvalue = [212, 5]"] ;
14 -> 16 ;
17 [label="x[5] <= 2508.694\nentropy = 0.765\nsamples = 319\nvalue = [248, 71]"] ;
9 -> 17 ;
18 [label="x[6] <= 0.011\nentropy = 0.54\nsamples = 113\nvalue = [99, 14]"] ;
17 -> 18 ;
19 [label="entropy = 0.641\nsamples = 86\nvalue = [72, 14]"] ;
18 -> 19 ;
20 [label="entropy = 0.0\nsamples = 27\nvalue = [27, 0]"] ;
18 -> 20 ;
21 [label="x[3] <= 4.5\nentropy = 0.851\nsamples = 206\nvalue = [149, 57]"] ;
17 -> 21 ;
22 [label="entropy = 0.944\nsamples = 105\nvalue = [67, 38]"] ;
21 -> 22 ;
23 [label="entropy = 0.698\nsamples = 101\nvalue = [82, 19]"] ;
21 -> 23 ;
24 [label="x[6] <= 0.0\nentropy = 0.99\nsamples = 2449\nvalue = [1080, 1369]"] ;
0 -> 24 [labeldistance=2.5, labelangle=-45, headlabel="False"] ;
25 [label="x[8] <= 23.664\nentropy = 0.842\nsamples = 1083\nvalue = [293, 790]"] ;
24 -> 25 ;
26 [label="x[0] <= 4.5\nentropy = 0.987\nsamples = 498\nvalue = [215, 283]"] ;
25 -> 26 ;
27 [label="x[62] <= 0.5\nentropy = 0.875\nsamples = 302\nvalue = [89, 213]"] ;
26 -> 27 ;
28 [label="entropy = 0.4\nsamples = 63\nvalue = [5, 58]"] ;
27 -> 28 ;
29 [label="entropy = 0.935\nsamples = 239\nvalue = [84, 155]"] ;
27 -> 29 ;
30 [label="x[8] <= 9.258\nentropy = 0.94\nsamples = 196\nvalue = [126, 70]"] ;
26 -> 30 ;
31 [label="entropy = 0.771\nsamples = 84\nvalue = [65, 19]"] ;
30 -> 31 ;
32 [label="entropy = 0.994\nsamples = 112\nvalue = [61, 51]"] ;
30 -> 32 ;
33 [label="x[0] <= 1.5\nentropy = 0.567\nsamples = 585\nvalue = [78, 507]"] ;
25 -> 33 ;
34 [label="x[7] <= 0.021\nentropy = 0.248\nsamples = 291\nvalue = [12, 279]"] ;
33 -> 34 ;
35 [label="entropy = 0.131\nsamples = 220\nvalue = [4, 216]"] ;
34 -> 35 ;
36 [label="entropy = 0.508\nsamples = 71\nvalue = [8, 63]"] ;
34 -> 36 ;
37 [label="x[4] <= 53.5\nentropy = 0.768\nsamples = 294\nvalue = [66, 228]"] ;
33 -> 37 ;
38 [label="entropy = 0.707\nsamples = 249\nvalue = [48, 201]"] ;
37 -> 38 ;
39 [label="entropy = 0.971\nsamples = 45\nvalue = [18, 27]"] ;
37 -> 39 ;
40 [label="x[72] <= 0.5\nentropy = 0.983\nsamples = 1366\nvalue = [787, 579]"] ;
24 -> 40 ;
41 [label="x[5] <= 1327.756\nentropy = 0.935\nsamples = 972\nvalue = [631, 341]"] ;
40 -> 41 ;
42 [label="x[0] <= 1.5\nentropy = 1.0\nsamples = 368\nvalue = [186, 182]"] ;
41 -> 42 ;
43 [label="entropy = 0.948\nsamples = 131\nvalue = [48, 83]"] ;
42 -> 43 ;
44 [label="entropy = 0.98\nsamples = 237\nvalue = [138, 99]"] ;
42 -> 44 ;
45 [label="x[70] <= 0.5\nentropy = 0.832\nsamples = 604\nvalue = [445, 159]"] ;
41 -> 45 ;
46 [label="entropy = 0.774\nsamples = 522\nvalue = [403, 119]"] ;
45 -> 46 ;
47 [label="entropy = 1.0\nsamples = 82\nvalue = [42, 40]"] ;
45 -> 47 ;
48 [label="x[7] <= 0.021\nentropy = 0.969\nsamples = 394\nvalue = [156, 238]"] ;
40 -> 48 ;
49 [label="x[0] <= 3.5\nentropy = 0.857\nsamples = 203\nvalue = [57, 146]"] ;
48 -> 49 ;
50 [label="entropy = 0.537\nsamples = 57\nvalue = [7, 50]"] ;
49 -> 50 ;
51 [label="entropy = 0.927\nsamples = 146\nvalue = [50, 96]"] ;
49 -> 51 ;
52 [label="x[5] <= 4586.301\nentropy = 0.999\nsamples = 191\nvalue = [99, 92]"] ;
48 -> 52 ;
53 [label="entropy = 0.976\nsamples = 154\nvalue = [91, 63]"] ;
52 -> 53 ;
54 [label="entropy = 0.753\nsamples = 37\nvalue = [8, 29]"] ;
52 -> 54 ;
}